digraph Tree {
node [shape=box] ;
0 [label="checking_balance <= 1.5\nentropy = 0.888\nsamples = 700\nvalue = [486, 214]\nclass = No"] ;
1 [label="months_loan_duration <= 22.5\nentropy = 0.991\nsamples = 378\nvalue = [210, 168]\nclass = No"] ;
0 -> 1 [labeldistance=2.5, labelangle=45, headlabel="True"] ;
2 [label="credit_history <= 1.5\nentropy = 0.925\nsamples = 209\nvalue = [138, 71]\nclass = No"] ;
1 -> 2 ;
3 [label="other_debtors <= 1.5\nentropy = 0.616\nsamples = 59\nvalue = [50, 9]\nclass = No"] ;
2 -> 3 ;
4 [label="installment_rate <= 3.5\nentropy = 1.0\nsamples = 8\nvalue = [4, 4]\nclass = No"] ;
3 -> 4 ;
5 [label="entropy = 0.0\nsamples = 3\nvalue = [0, 3]\nclass = Yes"] ;
4 -> 5 ;
6 [label="entropy = 0.722\nsamples = 5\nvalue = [4, 1]\nclass = No"] ;
4 -> 6 ;
7 [label="credit_history <= 0.5\nentropy = 0.463\nsamples = 51\nvalue = [46, 5]\nclass = No"] ;
3 -> 7 ;
8 [label="entropy = 0.286\nsamples = 40\nvalue = [38, 2]\nclass = No"] ;
7 -> 8 ;
9 [label="entropy = 0.845\nsamples = 11\nvalue = [8, 3]\nclass = No"] ;
7 -> 9 ;
10 [label="other_debtors <= 1.5\nentropy = 0.978\nsamples = 150\nvalue = [88, 62]\nclass = No"] ;
2 -> 10 ;
11 [label="entropy = 0.0\nsamples = 19\nvalue = [19, 0]\nclass = No"] ;
10 -> 11 ;
12 [label="credit_history <= 3.5\nentropy = 0.998\nsamples = 131\nvalue = [69, 62]\nclass = No"] ;
10 -> 12 ;
13 [label="entropy = 0.722\nsamples = 20\nvalue = [4, 16]\nclass = Yes"] ;
12 -> 13 ;
14 [label="entropy = 0.979\nsamples = 111\nvalue = [65, 46]\nclass = No"] ;
12 -> 14 ;
15 [label="savings_balance <= 2.5\nentropy = 0.984\nsamples = 169\nvalue = [72, 97]\nclass = Yes"] ;
1 -> 15 ;
16 [label="amount <= 11025.0\nentropy = 0.941\nsamples = 137\nvalue = [49, 88]\nclass = Yes"] ;
15 -> 16 ;
17 [label="installment_rate <= 2.5\nentropy = 0.964\nsamples = 126\nvalue = [49, 77]\nclass = Yes"] ;
16 -> 17 ;
18 [label="entropy = 0.989\nsamples = 41\nvalue = [23, 18]\nclass = No"] ;
17 -> 18 ;
19 [label="entropy = 0.888\nsamples = 85\nvalue = [26, 59]\nclass = Yes"] ;
17 -> 19 ;
20 [label="entropy = 0.0\nsamples = 11\nvalue = [0, 11]\nclass = Yes"] ;
16 -> 20 ;
21 [label="credit_history <= 3.5\nentropy = 0.857\nsamples = 32\nvalue = [23, 9]\nclass = No"] ;
15 -> 21 ;
22 [label="entropy = 0.0\nsamples = 12\nvalue = [12, 0]\nclass = No"] ;
21 -> 22 ;
23 [label="amount <= 1543.0\nentropy = 0.993\nsamples = 20\nvalue = [11, 9]\nclass = No"] ;
21 -> 23 ;
24 [label="entropy = 0.0\nsamples = 3\nvalue = [0, 3]\nclass = Yes"] ;
23 -> 24 ;
25 [label="entropy = 0.937\nsamples = 17\nvalue = [11, 6]\nclass = No"] ;
23 -> 25 ;
26 [label="credit_history <= 0.5\nentropy = 0.592\nsamples = 322\nvalue = [276, 46]\nclass = No"] ;
0 -> 26 [labeldistance=2.5, labelangle=-45, headlabel="False"] ;
27 [label="installment_plan <= 0.5\nentropy = 0.351\nsamples = 121\nvalue = [113, 8]\nclass = No"] ;
26 -> 27 ;
28 [label="age <= 39.0\nentropy = 0.918\nsamples = 12\nvalue = [8, 4]\nclass = No"] ;
27 -> 28 ;
29 [label="amount <= 2159.0\nentropy = 0.985\nsamples = 7\nvalue = [3, 4]\nclass = Yes"] ;
28 -> 29 ;
30 [label="entropy = 0.0\nsamples = 3\nvalue = [0, 3]\nclass = Yes"] ;
29 -> 30 ;
31 [label="entropy = 0.811\nsamples = 4\nvalue = [3, 1]\nclass = No"] ;
29 -> 31 ;
32 [label="entropy = 0.0\nsamples = 5\nvalue = [5, 0]\nclass = No"] ;
28 -> 32 ;
33 [label="purpose <= 1.5\nentropy = 0.227\nsamples = 109\nvalue = [105, 4]\nclass = No"] ;
27 -> 33 ;
34 [label="amount <= 7541.5\nentropy = 0.523\nsamples = 34\nvalue = [30, 4]\nclass = No"] ;
33 -> 34 ;
35 [label="entropy = 0.337\nsamples = 32\nvalue = [30, 2]\nclass = No"] ;
34 -> 35 ;
36 [label="entropy = 0.0\nsamples = 2\nvalue = [0, 2]\nclass = Yes"] ;
34 -> 36 ;
37 [label="entropy = 0.0\nsamples = 75\nvalue = [75, 0]\nclass = No"] ;
33 -> 37 ;
38 [label="purpose <= 0.5\nentropy = 0.699\nsamples = 201\nvalue = [163, 38]\nclass = No"] ;
26 -> 38 ;
39 [label="amount <= 1825.5\nentropy = 0.985\nsamples = 21\nvalue = [12, 9]\nclass = No"] ;
38 -> 39 ;
40 [label="entropy = 0.0\nsamples = 6\nvalue = [6, 0]\nclass = No"] ;
39 -> 40 ;
41 [label="personal_status <= 1.5\nentropy = 0.971\nsamples = 15\nvalue = [6, 9]\nclass = Yes"] ;
39 -> 41 ;
42 [label="entropy = 0.722\nsamples = 5\nvalue = [4, 1]\nclass = No"] ;
41 -> 42 ;
43 [label="entropy = 0.722\nsamples = 10\nvalue = [2, 8]\nclass = Yes"] ;
41 -> 43 ;
44 [label="other_debtors <= 0.5\nentropy = 0.637\nsamples = 180\nvalue = [151, 29]\nclass = No"] ;
38 -> 44 ;
45 [label="purpose <= 3.0\nentropy = 0.918\nsamples = 6\nvalue = [2, 4]\nclass = Yes"] ;
44 -> 45 ;
46 [label="entropy = 0.0\nsamples = 2\nvalue = [2, 0]\nclass = No"] ;
45 -> 46 ;
47 [label="entropy = 0.0\nsamples = 4\nvalue = [0, 4]\nclass = Yes"] ;
45 -> 47 ;
48 [label="existing_credits <= 1.5\nentropy = 0.594\nsamples = 174\nvalue = [149, 25]\nclass = No"] ;
44 -> 48 ;
49 [label="entropy = 0.506\nsamples = 134\nvalue = [119, 15]\nclass = No"] ;
48 -> 49 ;
50 [label="entropy = 0.811\nsamples = 40\nvalue = [30, 10]\nclass = No"] ;
48 -> 50 ;
}